{
    "architecture": "NN",
    "id": 12640,
    "score": 99.97,
    "nn_format": [
        152,
        6
    ],
    "layers": [
        {
            "layer_name": "linear_relu_stack",
            "layer_type": "Sequential",
            "parameters": {
                "0.weight": [
                    [
                        -0.0885557234287262,
                        -0.21392938494682312,
                        -0.06524818390607834,
                        -0.0822412371635437,
                        0.007154569961130619,
                        0.08076599985361099,
                        0.32007914781570435,
                        -0.024889513850212097,
                        -0.0726054459810257,
                        0.028967661783099174,
                        0.0551186129450798,
                        0.08727401494979858,
                        -0.03376417234539986,
                        -0.00349635211750865,
                        -0.018243171274662018,
                        0.20349718630313873,
                        -0.13606317341327667,
                        -0.023131536319851875,
                        0.014045458287000656,
                        0.13989198207855225,
                        0.05318772420287132,
                        -0.009126353077590466,
                        -0.12379737198352814,
                        0.1420900970697403,
                        0.015607661567628384,
                        0.08407546579837799,
                        0.06682340800762177,
                        0.14786703884601593,
                        -0.08169973641633987,
                        0.0429474338889122,
                        -0.05516180396080017,
                        -0.02929571270942688,
                        -0.018173323944211006,
                        -0.1586475372314453,
                        -0.011377460323274136,
                        -0.024048728868365288,
                        0.2187258005142212,
                        -0.10807445645332336,
                        0.11250650137662888,
                        0.18706300854682922,
                        0.06649574637413025,
                        0.03027971088886261,
                        -0.011380959302186966,
                        0.1435900181531906,
                        -0.09307315945625305,
                        -0.01696041412651539,
                        -0.11115284264087677,
                        -0.08639496564865112,
                        0.050288259983062744,
                        0.07568870484828949,
                        0.015187105163931847,
                        0.015153794549405575,
                        0.29087334871292114,
                        -0.02844180539250374,
                        0.030899230390787125,
                        0.21953356266021729,
                        0.03425544127821922,
                        0.025484738871455193,
                        0.06266885995864868,
                        0.019879797473549843,
                        0.07003642618656158,
                        7.920115604065359e-05,
                        0.032948847860097885,
                        -0.032585158944129944,
                        0.0010678453836590052,
                        0.19525881111621857,
                        -0.09105745702981949,
                        0.22205694019794464,
                        -0.019130796194076538,
                        0.08040165156126022,
                        0.07494299113750458,
                        -0.3017313778400421,
                        0.1635679304599762,
                        -0.10677990317344666,
                        -0.0312977135181427,
                        -0.0019593851175159216,
                        0.059420157223939896,
                        0.15693320333957672,
                        0.02547479048371315,
                        -0.008072755299508572,
                        0.216403529047966,
                        -0.0514095202088356,
                        -0.032919950783252716,
                        0.04786089062690735,
                        0.08887743949890137,
                        -0.04504463076591492,
                        -0.02586294151842594,
                        0.06778384745121002,
                        0.17992836236953735,
                        0.02079787850379944,
                        -0.17130683362483978,
                        -0.04764779284596443,
                        -0.22082437574863434,
                        -0.02832692675292492,
                        -0.07537880539894104,
                        -0.02615983784198761,
                        0.07167384773492813,
                        0.04463878273963928,
                        0.006813357584178448,
                        -0.005881737917661667,
                        -0.003362604882568121,
                        -0.05899965018033981,
                        -0.012262143194675446,
                        0.11166355013847351,
                        0.014646431431174278,
                        -0.11024612933397293,
                        0.10875362157821655,
                        -0.03616407886147499,
                        -0.015705622732639313,
                        0.049318473786115646,
                        -0.04241234064102173,
                        -0.021364886313676834,
                        -0.12580879032611847,
                        -0.13999226689338684,
                        -0.024235984310507774,
                        0.015394343994557858,
                        -0.024900194257497787,
                        0.08135674893856049,
                        0.01526014506816864,
                        0.0360899418592453,
                        0.04617190361022949,
                        0.08346520364284515,
                        0.13452383875846863,
                        -0.031917471438646317,
                        -0.07284232974052429,
                        -0.06130918487906456,
                        0.1300862729549408,
                        -0.061140190809965134,
                        0.07759993523359299,
                        0.00845580268651247,
                        0.0148998461663723,
                        -0.022185886278748512,
                        0.23406898975372314,
                        0.055775370448827744,
                        0.04074938967823982,
                        -0.06154762953519821,
                        0.06098424270749092,
                        -0.06259829550981522,
                        -0.03799235075712204,
                        0.027025718241930008,
                        0.0002753306180238724,
                        0.11431577801704407,
                        0.04739479348063469,
                        0.028615234419703484,
                        0.04257149621844292,
                        0.0544767752289772,
                        -0.10187813639640808,
                        -0.014022617600858212,
                        0.04142027348279953,
                        0.30349984765052795,
                        -0.1080695316195488,
                        0.02626081183552742
                    ],
                    [
                        0.07230213284492493,
                        0.0009326764848083258,
                        -0.11452777683734894,
                        0.10996982455253601,
                        0.048473868519067764,
                        0.07626216113567352,
                        0.04504268616437912,
                        0.04989989101886749,
                        0.023716293275356293,
                        -0.01551960501819849,
                        0.0734245628118515,
                        0.038185302168130875,
                        0.08360672742128372,
                        -0.007129303179681301,
                        -0.03331736475229263,
                        -0.06038806587457657,
                        0.056743375957012177,
                        -0.1201413944363594,
                        -0.028173090890049934,
                        -0.016422562301158905,
                        0.21063828468322754,
                        0.05476072430610657,
                        0.05927969515323639,
                        -0.059025637805461884,
                        0.0643417239189148,
                        0.004750966560095549,
                        0.15488015115261078,
                        -0.1483595073223114,
                        0.08268191665410995,
                        -0.01659688726067543,
                        -0.05308852717280388,
                        0.013715987093746662,
                        -0.09799496829509735,
                        0.010481941513717175,
                        0.01885019987821579,
                        0.014354035258293152,
                        0.12923069298267365,
                        -0.1938709020614624,
                        -0.03948073461651802,
                        0.05843605101108551,
                        -0.11988586187362671,
                        -0.01641988754272461,
                        -0.00773357879370451,
                        0.07812820374965668,
                        -0.04892370104789734,
                        0.03722158819437027,
                        0.05630730092525482,
                        0.006377227604389191,
                        0.14789721369743347,
                        0.14022353291511536,
                        0.062432900071144104,
                        0.009257137775421143,
                        0.10348005592823029,
                        -0.05815150588750839,
                        0.02968299761414528,
                        -0.05248437076807022,
                        -0.0377400703728199,
                        -0.13716337084770203,
                        -0.010120091028511524,
                        0.16352306306362152,
                        0.005679719150066376,
                        0.14660146832466125,
                        -0.08690497279167175,
                        -0.07471752166748047,
                        0.12086179107427597,
                        0.02257893607020378,
                        -0.0725914016366005,
                        -0.08183567225933075,
                        0.027511803433299065,
                        -0.02536509372293949,
                        0.17706722021102905,
                        0.008843448013067245,
                        -0.07688607275485992,
                        0.11020196974277496,
                        -0.0644908919930458,
                        0.012714912183582783,
                        -0.07428522408008575,
                        0.0342039056122303,
                        0.005974622443318367,
                        0.06362640112638474,
                        -0.14805026352405548,
                        0.1548372209072113,
                        -0.09622849524021149,
                        -0.03465476632118225,
                        0.059560589492321014,
                        -0.07360342890024185,
                        -0.12338314950466156,
                        -0.15786036849021912,
                        -0.17565016448497772,
                        -0.17801663279533386,
                        -0.03322349488735199,
                        -0.15386441349983215,
                        -0.01820414513349533,
                        -0.027201354503631592,
                        0.2246314287185669,
                        0.016698069870471954,
                        0.014473430812358856,
                        0.11452758312225342,
                        -0.04343961924314499,
                        -0.013591902330517769,
                        0.1332630217075348,
                        -0.010262129828333855,
                        -0.1838177889585495,
                        -0.049519967287778854,
                        -0.044695913791656494,
                        -0.334073007106781,
                        0.04476224258542061,
                        -0.0501103438436985,
                        0.04334258288145065,
                        0.01978052780032158,
                        -0.2120361030101776,
                        -0.0486045703291893,
                        0.10613061487674713,
                        -0.035549189895391464,
                        0.19012872874736786,
                        0.02480393461883068,
                        -0.013174229301512241,
                        -0.026969395577907562,
                        -0.01657695136964321,
                        -0.030926916748285294,
                        -0.25370386242866516,
                        0.022434141486883163,
                        -0.17584210634231567,
                        -0.07568597048521042,
                        -0.019886912778019905,
                        0.055857740342617035,
                        0.04432694613933563,
                        0.08045712858438492,
                        -0.09558475017547607,
                        -0.07907432317733765,
                        0.010927238501608372,
                        0.2284151315689087,
                        -0.15352290868759155,
                        -0.013714393600821495,
                        -0.03710104152560234,
                        -0.028782855719327927,
                        0.015617857687175274,
                        -0.015992455184459686,
                        0.03335387632250786,
                        0.027125170454382896,
                        -0.2557429075241089,
                        0.003992149606347084,
                        -0.005583997815847397,
                        -0.011310659348964691,
                        -0.14061889052391052,
                        0.09774462878704071,
                        0.10972344130277634,
                        -0.048527225852012634,
                        0.013809191063046455,
                        0.024650759994983673,
                        -0.08708738535642624,
                        -0.1037873849272728
                    ],
                    [
                        0.09890944510698318,
                        -0.26110976934432983,
                        -0.029005303978919983,
                        0.09770461916923523,
                        0.03790035471320152,
                        -0.12939029932022095,
                        0.13063780963420868,
                        -0.10186119377613068,
                        -0.07730452716350555,
                        -0.17237229645252228,
                        0.01441119983792305,
                        0.04981052130460739,
                        0.020522622391581535,
                        -0.04715584218502045,
                        0.0016356210689991713,
                        0.05353935807943344,
                        0.051072027534246445,
                        0.06303463876247406,
                        0.0634048655629158,
                        -0.02218862995505333,
                        0.13881371915340424,
                        -0.041016243398189545,
                        -0.15623044967651367,
                        0.02456105872988701,
                        0.07194873690605164,
                        -0.0026001455262303352,
                        0.023753980174660683,
                        -0.003976996522396803,
                        -0.02530018612742424,
                        0.04941844567656517,
                        -0.1580909937620163,
                        0.031560108065605164,
                        0.10475322604179382,
                        -0.08471160382032394,
                        0.06482397764921188,
                        0.035742804408073425,
                        -0.03291799873113632,
                        -0.07478316128253937,
                        -0.0480024591088295,
                        0.058297839015722275,
                        0.001943969284184277,
                        0.0364188626408577,
                        -0.03009527176618576,
                        0.07139615714550018,
                        0.07959479838609695,
                        0.2218933403491974,
                        0.09903567284345627,
                        -0.13071636855602264,
                        0.12478931248188019,
                        0.11520621180534363,
                        -0.22467228770256042,
                        -0.01798079162836075,
                        -0.08275232464075089,
                        -0.02445233054459095,
                        0.05109157785773277,
                        0.08096860349178314,
                        0.013103967532515526,
                        -0.039523907005786896,
                        -0.09420673549175262,
                        -0.10619387030601501,
                        -0.057036615908145905,
                        0.09915173053741455,
                        -0.09593380242586136,
                        -0.02230139821767807,
                        -0.0754072517156601,
                        -0.21699649095535278,
                        -0.089375801384449,
                        -0.008531039580702782,
                        0.009276894852519035,
                        -0.09419529885053635,
                        -0.0016106361290439963,
                        -0.038861233741045,
                        0.05203159525990486,
                        -0.05941209942102432,
                        0.0509500578045845,
                        -0.1057082861661911,
                        -0.03554725646972656,
                        0.03232443705201149,
                        -0.1165466383099556,
                        -0.12313614785671234,
                        0.03077026829123497,
                        -0.04955238103866577,
                        -0.020566623657941818,
                        0.056719910353422165,
                        -0.040291693061590195,
                        0.05273604020476341,
                        0.049568839371204376,
                        0.0022479663603007793,
                        -0.030266471207141876,
                        -0.040860384702682495,
                        -0.05535672605037689,
                        -0.04141600430011749,
                        -0.046587083488702774,
                        -0.03169126808643341,
                        0.04068097844719887,
                        -0.024859609082341194,
                        -0.0620720349252224,
                        -0.09968359768390656,
                        -0.016467126086354256,
                        -0.023253973573446274,
                        -0.13313032686710358,
                        0.17893454432487488,
                        -0.12449526786804199,
                        0.03065120428800583,
                        0.052273184061050415,
                        0.0398038774728775,
                        -0.04121368005871773,
                        -0.04582506790757179,
                        -0.002146622631698847,
                        -0.03452007845044136,
                        -0.1119481697678566,
                        -0.03663031384348869,
                        0.028286878019571304,
                        0.06771340221166611,
                        -0.1121687963604927,
                        0.017148680984973907,
                        0.20803505182266235,
                        0.057758111506700516,
                        0.013637199997901917,
                        -0.065462626516819,
                        -0.058665525168180466,
                        0.0693398118019104,
                        0.012430651113390923,
                        -0.09201592206954956,
                        0.06822730600833893,
                        -0.0331241600215435,
                        0.03466296195983887,
                        0.06327389180660248,
                        0.0703217163681984,
                        0.00931581761687994,
                        0.19376514852046967,
                        -0.03567564859986305,
                        0.09425265341997147,
                        0.009255952201783657,
                        0.007115529850125313,
                        -0.05059812217950821,
                        -0.09116730839014053,
                        0.044660456478595734,
                        0.07515572011470795,
                        -0.09824840724468231,
                        -0.06240616738796234,
                        0.09807956963777542,
                        -0.07234390079975128,
                        0.021418403834104538,
                        0.23082919418811798,
                        -0.05258429795503616,
                        0.0029768282547593117,
                        0.04947478324174881,
                        0.021379778161644936,
                        0.07575332373380661,
                        0.027287717908620834,
                        -0.03422990441322327
                    ],
                    [
                        0.1822906732559204,
                        0.01199533510953188,
                        0.11287382990121841,
                        0.015012368559837341,
                        -0.03353217989206314,
                        0.00800346676260233,
                        0.10302016884088516,
                        -0.032645419239997864,
                        -0.12218327820301056,
                        -0.017374929040670395,
                        0.037386052310466766,
                        -0.0029824436642229557,
                        0.06848716735839844,
                        -0.06526722013950348,
                        0.0706133246421814,
                        0.14770078659057617,
                        0.05183698236942291,
                        -0.13239578902721405,
                        -0.012721003033220768,
                        -0.024685198441147804,
                        0.01274100411683321,
                        0.04963388293981552,
                        0.0505213625729084,
                        -0.051921285688877106,
                        -0.09422237426042557,
                        -0.16704176366329193,
                        -0.012017003260552883,
                        0.15478812158107758,
                        0.02942105382680893,
                        0.11655796319246292,
                        -0.010789277032017708,
                        -0.14143377542495728,
                        0.1105387881398201,
                        0.17160610854625702,
                        -0.03786877170205116,
                        0.022111592814326286,
                        0.09313317388296127,
                        -0.13948017358779907,
                        -0.0981157198548317,
                        -0.14531725645065308,
                        -0.018429353833198547,
                        0.0243372805416584,
                        0.1631035953760147,
                        0.06044097989797592,
                        -0.17705348134040833,
                        0.14999045431613922,
                        0.06769915670156479,
                        -0.01710502617061138,
                        0.16063804924488068,
                        -0.016334695741534233,
                        0.04896228015422821,
                        0.029896164312958717,
                        -0.11928604543209076,
                        0.0018321482930332422,
                        -0.24581077694892883,
                        0.06943933665752411,
                        -0.09386235475540161,
                        0.04083229973912239,
                        -0.014083383604884148,
                        -0.04375215619802475,
                        0.005948203150182962,
                        -0.0395117849111557,
                        0.1456657201051712,
                        0.17712907493114471,
                        0.10120286047458649,
                        -0.0351567417383194,
                        0.13509629666805267,
                        0.10894912481307983,
                        0.04798182100057602,
                        0.013686373829841614,
                        0.14147818088531494,
                        0.17408758401870728,
                        0.06018702685832977,
                        -0.22669881582260132,
                        0.1102898120880127,
                        -0.015871059149503708,
                        0.1130337044596672,
                        -0.12458845227956772,
                        0.016937948763370514,
                        -0.007317555136978626,
                        0.03269766643643379,
                        -0.09776495397090912,
                        -0.08461372554302216,
                        0.09427943825721741,
                        -0.019971251487731934,
                        0.12094923853874207,
                        0.022576261311769485,
                        0.02193225920200348,
                        0.027428245171904564,
                        0.07721865177154541,
                        -0.11692178249359131,
                        -0.13271811604499817,
                        -0.025598010048270226,
                        0.00016424545901827514,
                        -0.09163890033960342,
                        -0.007904190570116043,
                        -0.17367134988307953,
                        0.06590816378593445,
                        -0.112739197909832,
                        0.17565372586250305,
                        -0.011692751199007034,
                        -0.06208016723394394,
                        0.03978561609983444,
                        -0.09678999334573746,
                        -0.004646793939173222,
                        0.22798863053321838,
                        0.020081136375665665,
                        0.0199748445302248,
                        -0.02753060683608055,
                        -0.029929233714938164,
                        -0.06712699681520462,
                        0.051808543503284454,
                        0.055374450981616974,
                        -0.038746774196624756,
                        -0.05367662385106087,
                        0.00018007411563303322,
                        -0.06392556428909302,
                        0.04784063249826431,
                        0.005401729606091976,
                        -0.01501682959496975,
                        -0.011390947736799717,
                        0.03409948945045471,
                        0.26591360569000244,
                        -0.02477196790277958,
                        -0.005043779034167528,
                        0.041413068771362305,
                        0.12917645275592804,
                        0.03242047131061554,
                        0.29564768075942993,
                        0.016142699867486954,
                        0.10451202839612961,
                        -0.05400170385837555,
                        -0.09189634770154953,
                        0.012076471000909805,
                        0.15021945536136627,
                        0.013575103133916855,
                        0.03728647530078888,
                        -0.043392620980739594,
                        -0.033029548823833466,
                        -0.03394366428256035,
                        0.048379164189100266,
                        -0.009896422736346722,
                        -0.06051056087017059,
                        0.07614456862211227,
                        0.08674942702054977,
                        0.08511102199554443,
                        -0.05291224271059036,
                        -0.06578534841537476,
                        0.01540700439363718,
                        0.0430024117231369,
                        0.09325903654098511,
                        0.10171089321374893
                    ],
                    [
                        0.0395146980881691,
                        -0.06303823739290237,
                        0.051967620849609375,
                        0.12200625240802765,
                        0.09154943376779556,
                        0.07268280535936356,
                        0.05314433574676514,
                        0.10765562951564789,
                        0.07031874358654022,
                        0.08943769335746765,
                        -0.04646468535065651,
                        0.17755268514156342,
                        0.01406871434301138,
                        0.27219605445861816,
                        -0.07020880281925201,
                        -0.019205715507268906,
                        0.004774938803166151,
                        -0.11172957718372345,
                        -0.04224385321140289,
                        -0.031359486281871796,
                        0.08510686457157135,
                        0.08577462285757065,
                        -0.05597853660583496,
                        0.07577964663505554,
                        -0.018964800983667374,
                        -0.021733015775680542,
                        -0.09418119490146637,
                        0.061467770487070084,
                        -0.09006332606077194,
                        0.395036906003952,
                        0.029538102447986603,
                        0.1471250355243683,
                        -0.027612466365098953,
                        -0.05499858409166336,
                        0.015781305730342865,
                        -0.052433378994464874,
                        -0.02272881008684635,
                        -0.13199689984321594,
                        -0.05246659368276596,
                        -0.1515710949897766,
                        0.12913814187049866,
                        -0.023830866441130638,
                        0.04901807755231857,
                        -0.08863642811775208,
                        -0.03902015462517738,
                        0.016051985323429108,
                        0.04571758955717087,
                        -0.05345683917403221,
                        -0.031164944171905518,
                        0.09483963251113892,
                        0.020526958629488945,
                        0.023728452622890472,
                        -0.1664968878030777,
                        -0.05958884209394455,
                        -0.1238694116473198,
                        -0.01918722875416279,
                        0.06176884472370148,
                        -0.09228786826133728,
                        0.04427767172455788,
                        0.06589213013648987,
                        -0.09274373948574066,
                        -0.009090714156627655,
                        0.04558170959353447,
                        0.08050571382045746,
                        -0.11785945296287537,
                        0.023500315845012665,
                        0.04512634873390198,
                        -0.009672499261796474,
                        0.01898619532585144,
                        -0.06815073639154434,
                        0.28360360860824585,
                        -0.012214971706271172,
                        0.07082641124725342,
                        -0.08726383745670319,
                        0.14934784173965454,
                        -0.04423948749899864,
                        0.022074900567531586,
                        -0.07609813660383224,
                        -0.0008659919258207083,
                        0.057732366025447845,
                        0.020852966234087944,
                        0.06005800515413284,
                        -0.02676350250840187,
                        -0.28813856840133667,
                        -0.06631682813167572,
                        -0.003650254337117076,
                        0.038102928549051285,
                        -0.051465004682540894,
                        0.051274221390485764,
                        0.04935242235660553,
                        0.11784082651138306,
                        0.1901756376028061,
                        -0.19358833134174347,
                        -0.126862034201622,
                        -0.06647148728370667,
                        0.08182735741138458,
                        -0.03488209843635559,
                        0.04216614365577698,
                        0.10361186414957047,
                        0.07724994421005249,
                        0.0004973720060661435,
                        -0.07286272943019867,
                        -0.23227065801620483,
                        -0.034641604870557785,
                        -0.07769209891557693,
                        0.22625093162059784,
                        -0.03531810641288757,
                        -0.10938984155654907,
                        0.024665486067533493,
                        0.0037234025076031685,
                        -0.1409304440021515,
                        0.10244137048721313,
                        -0.04459128901362419,
                        0.015614712610840797,
                        0.20073387026786804,
                        0.028834421187639236,
                        0.06809709221124649,
                        -0.012883996590971947,
                        -0.026947258040308952,
                        0.23738804459571838,
                        0.02214808389544487,
                        -0.009098012000322342,
                        0.0453118234872818,
                        0.0005732652498409152,
                        0.023237239569425583,
                        0.050941914319992065,
                        -0.037923719733953476,
                        -0.025960247963666916,
                        -0.027584629133343697,
                        0.1229362040758133,
                        -0.02801629900932312,
                        -0.024063654243946075,
                        0.021971261128783226,
                        -0.14950323104858398,
                        0.15383170545101166,
                        0.008918605744838715,
                        -0.06080138683319092,
                        0.1012139841914177,
                        0.013770167715847492,
                        -0.003923431038856506,
                        -0.0027898745611310005,
                        0.07493910938501358,
                        0.07070807367563248,
                        0.1125706136226654,
                        -0.0006938620936125517,
                        -0.1334257423877716,
                        0.1605202555656433,
                        -0.09604857116937637,
                        0.1532527357339859,
                        0.04341736435890198,
                        -0.0056038545444607735,
                        0.056426070630550385
                    ],
                    [
                        0.05189988389611244,
                        0.06360195577144623,
                        0.05327240377664566,
                        0.010893440805375576,
                        0.033783990889787674,
                        0.20781631767749786,
                        -0.052927643060684204,
                        -0.05186682194471359,
                        -0.030988944694399834,
                        -0.017895497381687164,
                        -0.07390852272510529,
                        -0.03564812242984772,
                        0.06384237110614777,
                        -0.000889161485247314,
                        -0.01036084070801735,
                        -0.07197555154561996,
                        -0.1505654752254486,
                        -0.022965174168348312,
                        -0.09488826990127563,
                        0.007337097078561783,
                        0.0503646545112133,
                        0.03488960862159729,
                        -0.05025830864906311,
                        0.06939950585365295,
                        0.09728915989398956,
                        -0.33954983949661255,
                        -0.03799576312303543,
                        0.0355435349047184,
                        0.04217369854450226,
                        -0.018517449498176575,
                        -0.0858137384057045,
                        -0.18235626816749573,
                        -0.007608612533658743,
                        -0.05318417400121689,
                        -0.07977703958749771,
                        0.02887681871652603,
                        -0.06855002790689468,
                        0.019668448716402054,
                        0.041843563318252563,
                        0.060320895165205,
                        0.019924718886613846,
                        -0.1508137285709381,
                        0.022032659500837326,
                        0.0040805707685649395,
                        -0.012675279751420021,
                        0.03713514655828476,
                        -0.1708901822566986,
                        -0.018380938097834587,
                        0.006862401030957699,
                        0.07600058615207672,
                        0.023983173072338104,
                        -0.03328721225261688,
                        0.15403500199317932,
                        0.27318066358566284,
                        0.017379339784383774,
                        -0.04966377839446068,
                        -0.1520967185497284,
                        0.08093028515577316,
                        -0.0430326908826828,
                        0.11299257725477219,
                        0.25470373034477234,
                        0.13329140841960907,
                        -0.19028030335903168,
                        0.019705813378095627,
                        -0.19032354652881622,
                        -0.12857389450073242,
                        0.08954700827598572,
                        0.08373885601758957,
                        0.009470660239458084,
                        -0.058425791561603546,
                        -0.18733949959278107,
                        -0.003663253504782915,
                        -0.01908215880393982,
                        0.002783046569675207,
                        0.18206940591335297,
                        0.13109666109085083,
                        -0.03412046283483505,
                        0.006677623372524977,
                        -0.06979602575302124,
                        0.01811187155544758,
                        -0.10496582835912704,
                        -0.02179233357310295,
                        0.03461991250514984,
                        -0.06881330162286758,
                        0.042761147022247314,
                        -0.07772862911224365,
                        0.04325489327311516,
                        0.00736248679459095,
                        -0.03307601809501648,
                        -0.0011358462506905198,
                        -0.0018173702992498875,
                        0.042389124631881714,
                        -0.15025311708450317,
                        -0.15015514194965363,
                        0.04995016008615494,
                        0.04887847602367401,
                        0.19852881133556366,
                        -0.002153766108676791,
                        0.026541344821453094,
                        0.007046426180750132,
                        -0.0018371832557022572,
                        -0.022304294630885124,
                        0.019383922219276428,
                        -0.028444763273000717,
                        -0.18967196345329285,
                        -0.12493228912353516,
                        -0.03497401624917984,
                        0.07032166421413422,
                        0.034286435693502426,
                        0.0039345682598650455,
                        0.09670469909906387,
                        0.03250933811068535,
                        0.006058180704712868,
                        0.0044406708329916,
                        0.09141059219837189,
                        -0.00339130824431777,
                        0.09684387594461441,
                        -0.12698213756084442,
                        0.12212792038917542,
                        -0.004723869264125824,
                        -0.07837513834238052,
                        0.07854090631008148,
                        0.007743461988866329,
                        0.21507856249809265,
                        -0.032288312911987305,
                        -0.020317895337939262,
                        -0.0015215565217658877,
                        0.03574391081929207,
                        -0.016159463673830032,
                        -0.11403543502092361,
                        0.14480644464492798,
                        -0.06571938097476959,
                        0.0028731413185596466,
                        0.05719635635614395,
                        0.019737405702471733,
                        0.1045898050069809,
                        0.038032203912734985,
                        0.021673426032066345,
                        0.1342519372701645,
                        -0.05538860335946083,
                        -0.038820210844278336,
                        0.13339047133922577,
                        -0.011743063107132912,
                        -0.06488969922065735,
                        -0.08139638602733612,
                        0.04214026778936386,
                        -0.12427893280982971,
                        0.0629441887140274,
                        -0.0067863455042243,
                        -0.06159237027168274,
                        0.051509588956832886,
                        -0.0025927219539880753
                    ]
                ],
                "0.bias": [
                    0.05141047388315201,
                    0.1726004034280777,
                    0.08050486445426941,
                    -0.003813918214291334,
                    -0.0701860785484314,
                    0.06053033471107483
                ]
            }
        },
        {
            "layer_name": "sigmoid",
            "layer_type": "Sigmoid",
            "parameters": {}
        }
    ]
}